{
	"Layers": [
		{
			"Neurals": [
				{
					"Input": [
						1,
						0,
						1
					],
					"Weight": [
						3.5138513263577944,
						-0.6212664148815847,
						-1.81335987106024
					],
					"Delta": 0.20026623280163297,
					"Output": 0.845598910903374
				},
				{
					"Input": [
						1,
						0,
						1
					],
					"Weight": [
						-1.808028999691556,
						0.243979629604016,
						-2.6596930022932925
					],
					"Delta": -0.015192416527221718,
					"Output": 0.011343276335140375
				}
			]
		},
		{
			"Neurals": [
				{
					"Input": [
						1,
						0.845598910903374,
						0.011343276335140375
					],
					"Weight": [
						-1.458731610140081,
						1.7113469376104335,
						-2.705697856294287
					],
					"Delta": -0.2983302111965552,
					"Output": 0.4894240821503938
				},
				{
					"Input": [
						1,
						0.845598910903374,
						0.011343276335140375
					],
					"Weight": [
						-1.9072472467493808,
						-2.476354567193682,
						-0.5224441888561726
					],
					"Delta": -0.017705541523609276,
					"Output": 0.017859896303977173
				},
				{
					"Input": [
						1,
						0.845598910903374,
						0.011343276335140375
					],
					"Weight": [
						-0.3701751675177496,
						-2.777291215082318,
						-2.595221496168634
					],
					"Delta": -0.05508454147605051,
					"Output": 0.060194728780306246
				},
				{
					"Input": [
						1,
						0.845598910903374,
						0.011343276335140375
					],
					"Weight": [
						-1.718183887762968,
						2.0935368735186177,
						2.624043993070237
					],
					"Delta": -0.2298185677577144,
					"Output": 0.5204570408885947
				},
				{
					"Input": [
						1,
						0.845598910903374,
						0.011343276335140375
					],
					"Weight": [
						0.8484333686367785,
						0.018246745173121418,
						-2.2438335778423544
					],
					"Delta": 0.25192292828617896,
					"Output": 0.6981303164207306
				},
				{
					"Input": [
						1,
						0.845598910903374,
						0.011343276335140375
					],
					"Weight": [
						1.341103410302532,
						-2.5415020953965093,
						-0.5657130833190995
					],
					"Delta": 0.11024145357615785,
					"Output": 0.30695260497641336
				},
				{
					"Input": [
						1,
						0.845598910903374,
						0.011343276335140375
					],
					"Weight": [
						-0.7173572174541375,
						1.044577018887763,
						-0.5286822348453385
					],
					"Delta": 0.14630024264988792,
					"Output": 0.539899727577379
				},
				{
					"Input": [
						1,
						0.845598910903374,
						0.011343276335140375
					],
					"Weight": [
						1.7417625618367718,
						-1.9241491899092003,
						-1.2161763315836718
					],
					"Delta": 0.22746236591950572,
					"Output": 0.5252057848994682
				},
				{
					"Input": [
						1,
						0.845598910903374,
						0.011343276335140375
					],
					"Weight": [
						2.996426096688874,
						-1.3902733200729873,
						1.0025367197548034
					],
					"Delta": -0.009151509377733836,
					"Output": 0.8620217623818589
				},
				{
					"Input": [
						1,
						0.845598910903374,
						0.011343276335140375
					],
					"Weight": [
						-2.7762289296881737,
						-1.3041686749296664,
						2.185323110200513
					],
					"Delta": 0.006229640754161086,
					"Output": 0.020749937191630954
				}
			]
		},
		{
			"Neurals": [
				{
					"Input": [
						1,
						0.4894240821503938,
						0.017859896303977173,
						0.060194728780306246,
						0.5204570408885947,
						0.6981303164207306,
						0.30695260497641336,
						0.539899727577379,
						0.5252057848994682,
						0.8620217623818589,
						0.020749937191630954
					],
					"Weight": [
						-2.3608239318532704,
						-1.9661152061876188,
						-1.886132517082176,
						-1.8241742653502013,
						2.3257466039315147,
						1.027347486198555,
						1.1625955963604815,
						1.8023646357804513,
						-0.15321244769957906,
						0.6031040312886794,
						-2.430561689930509
					],
					"Delta": 0.5054679965796911,
					"Output": 0.5448884172400412
				}
			]
		}
	]
}