{
	"Layers": [
		{
			"Neurals": [
				{
					"Input": [
						1,
						0,
						0
					],
					"Weight": [
						0.5101130828034863,
						-2.4994834455844717,
						-0.08881569058591794
					],
					"Delta": -0.13137817138061736,
					"Output": 0.6248329833432031
				},
				{
					"Input": [
						1,
						0,
						0
					],
					"Weight": [
						-0.2050793392712896,
						-1.27107945155823,
						3.9758101169015934
					],
					"Delta": 0.14217142222058812,
					"Output": 0.448909102892979
				}
			]
		},
		{
			"Neurals": [
				{
					"Input": [
						1,
						0.6248329833432031,
						0.448909102892979
					],
					"Weight": [
						2.03483831796636,
						2.0151841073661645,
						-3.3232641719924425
					],
					"Delta": -0.15298524705832367,
					"Output": 0.8584102423672585
				},
				{
					"Input": [
						1,
						0.6248329833432031,
						0.448909102892979
					],
					"Weight": [
						-0.6823226101544132,
						1.8564624656175608,
						0.6036126986980359
					],
					"Delta": 0.05669244129442877,
					"Output": 0.678878715828417
				},
				{
					"Input": [
						1,
						0.6248329833432031,
						0.448909102892979
					],
					"Weight": [
						-2.309620367171253,
						-0.5895869083542474,
						-2.1783663367231396
					],
					"Delta": 0.007969257850585153,
					"Output": 0.025187380010707243
				},
				{
					"Input": [
						1,
						0.6248329833432031,
						0.448909102892979
					],
					"Weight": [
						0.5195425790094588,
						1.1129364128397317,
						0.447566744581413
					],
					"Delta": 0.19877477823017653,
					"Output": 0.8046883770683926
				},
				{
					"Input": [
						1,
						0.6248329833432031,
						0.448909102892979
					],
					"Weight": [
						-0.6828078291895979,
						3.024181152721615,
						0.9863676091114401
					],
					"Delta": 0.256296653453741,
					"Output": 0.8388355896531727
				},
				{
					"Input": [
						1,
						0.6248329833432031,
						0.448909102892979
					],
					"Weight": [
						2.6113027169003877,
						0.3275927008799221,
						-2.073040973696724
					],
					"Delta": -0.1737524700582393,
					"Output": 0.8682286042081987
				},
				{
					"Input": [
						1,
						0.6248329833432031,
						0.448909102892979
					],
					"Weight": [
						-2.7923492552321707,
						1.2553936366963119,
						-2.2158163849181616
					],
					"Delta": -0.004946849231962644,
					"Output": 0.0473068371018571
				},
				{
					"Input": [
						1,
						0.6248329833432031,
						0.448909102892979
					],
					"Weight": [
						1.344735139069611,
						-3.491409621838371,
						-1.5676196629246195
					],
					"Delta": -0.27769540384148145,
					"Output": 0.17645802540851588
				},
				{
					"Input": [
						1,
						0.6248329833432031,
						0.448909102892979
					],
					"Weight": [
						-1.1657715390738013,
						2.275907128036677,
						1.5591971413051018
					],
					"Delta": 0.05023527785638264,
					"Output": 0.7223659709894606
				},
				{
					"Input": [
						1,
						0.6248329833432031,
						0.448909102892979
					],
					"Weight": [
						0.3174740253908218,
						2.0182421266323787,
						-1.696926959620038
					],
					"Delta": 0.07249624236338542,
					"Output": 0.6935507630310122
				}
			]
		},
		{
			"Neurals": [
				{
					"Input": [
						1,
						0.8584102423672585,
						0.678878715828417,
						0.025187380010707243,
						0.8046883770683926,
						0.8388355896531727,
						0.8682286042081987,
						0.0473068371018571,
						0.17645802540851588,
						0.7223659709894606,
						0.6935507630310122
					],
					"Weight": [
						1.335124712586498,
						-0.4294475587602526,
						-1.240026558599904,
						-1.9323717588953482,
						-2.0759869651535197,
						1.5199531154885837,
						1.0347442120864756,
						2.208409313210261,
						-0.40657080410795227,
						-0.7059469328523614,
						-0.5677421904259096
					],
					"Delta": -0.5288318897853387,
					"Output": 0.42748158889321664
				}
			]
		}
	]
}